-1.558750029653310776e-02
8.073023520410060883e-03
1.557949185371398926e-02
-4.048421606421470642e-02
-2.304105460643768311e-02
4.676129668951034546e-02
-3.116379957646131516e-03
2.095235511660575867e-03
-4.266652464866638184e-02
-2.290427917614579201e-03
-8.615869097411632538e-03
5.698187276721000671e-02
-1.169026270508766174e-02
-8.776568621397018433e-02
3.798522055149078369e-02
-5.525324493646621704e-02
2.236213907599449158e-02
1.484791189432144165e-02
3.982347622513771057e-02
-8.057346194982528687e-02
-2.770129218697547913e-02
-1.819854043424129486e-02
-3.369454666972160339e-02
4.432379733771085739e-03
-6.106613203883171082e-03
-4.032690450549125671e-02
-3.821799997240304947e-03
6.060919538140296936e-02
3.079528547823429108e-02
4.146725684404373169e-02
1.044822670519351959e-02
5.044906213879585266e-02
2.539694309234619141e-02
-1.837142743170261383e-02
5.899964645504951477e-02
-6.607927381992340088e-03
-3.358720615506172180e-02
3.122121281921863556e-02
3.592602908611297607e-02
-1.077944971621036530e-02
2.141371183097362518e-02
2.057448774576187134e-02
-5.573245510458946228e-02
-2.263063378632068634e-02
-4.820016771554946899e-02
6.174358353018760681e-02
6.611787248402833939e-03
-3.902623057365417480e-02
-2.111132442951202393e-02
-6.006586924195289612e-02
3.500617295503616333e-02
-1.056601200252771378e-02
4.800689406692981720e-03
4.461000859737396240e-02
3.998500108718872070e-02
-6.193056330084800720e-02
3.898331895470619202e-02
1.075766142457723618e-02
-8.891225792467594147e-03
-6.901696324348449707e-02
6.232117116451263428e-02
1.510314550250768661e-02
-4.791843518614768982e-02
-5.199406668543815613e-02
-4.157883673906326294e-02
2.877366170287132263e-02
1.472045853734016418e-02
4.673242568969726562e-02
-3.570294752717018127e-02
6.167432293295860291e-02
6.649196147918701172e-02
7.326862961053848267e-02
-2.656788565218448639e-02
2.928594686090946198e-02
3.573224693536758423e-02
-4.703473299741744995e-02
-3.897652402520179749e-02
5.115831270813941956e-02
6.523686647415161133e-02
-1.744200289249420166e-02
4.969042539596557617e-02
2.702491916716098785e-02
3.692095726728439331e-02
3.321454569231718779e-04
-2.082842774689197540e-02
4.172410070896148682e-02
-2.452869154512882233e-02
2.461328916251659393e-02
-2.517933771014213562e-02
-1.259820628911256790e-02
9.125865064561367035e-03
-2.103444747626781464e-02
2.123061195015907288e-02
3.609502315521240234e-02
-7.609469443559646606e-02
-7.651992887258529663e-02
2.619702555239200592e-02
-1.919882930815219879e-02
-4.131850600242614746e-02
6.311774253845214844e-02
2.269326895475387573e-02
-1.035920232534408569e-01
2.248502150177955627e-02
-3.487088903784751892e-02
3.710543364286422729e-02
4.060173407196998596e-02
2.862120792269706726e-02
-6.132755801081657410e-02
1.095473580062389374e-02
4.100438579916954041e-02
6.835346668958663940e-02
-1.793914474546909332e-02
-4.642758890986442566e-02
-1.758155412971973419e-02
-8.804345130920410156e-02
5.095268040895462036e-02
-5.173570476472377777e-03
-2.632812969386577606e-02
3.549090772867202759e-02
-1.319198030978441238e-02
5.678934231400489807e-02
5.000237375497817993e-02
-2.786096557974815369e-02
-7.639735192060470581e-02
-3.518700972199440002e-02
-3.314600884914398193e-02
-1.257898379117250443e-02
8.752923458814620972e-02
-1.013564392924308777e-01
-4.176783934235572815e-02
-2.465715166181325912e-03
5.015059933066368103e-02
-8.054727688431739807e-03
-3.573124855756759644e-02
-3.045853599905967712e-02
1.394174527376890182e-02
3.338653594255447388e-02
3.902362287044525146e-02
1.511180959641933441e-02
4.761395975947380066e-03
-1.066859140992164612e-01
3.134094923734664917e-02
2.560073882341384888e-02
1.174816209822893143e-02
-1.124854013323783875e-02
-7.122322171926498413e-02
5.782000720500946045e-02
-2.880660817027091980e-02
-3.956379368901252747e-02
-8.803560398519039154e-03
-4.371966421604156494e-02
1.499985158443450928e-02
-6.274326145648956299e-02
5.551878362894058228e-02
-5.941400304436683655e-03
3.869727253913879395e-02
-2.602509781718254089e-02
-3.489531949162483215e-02
6.388049572706222534e-03
-3.498599305748939514e-02
-3.154329583048820496e-02
-5.182120203971862793e-02
-6.839577108621597290e-03
2.977516874670982361e-02
-1.068564355373382568e-01
-6.785260140895843506e-02
2.978529222309589386e-02
4.162472859025001526e-02
8.392519084736704826e-04
4.647493362426757812e-02
4.513107705861330032e-03
2.666578069329261780e-02
2.557672187685966492e-02
5.845441669225692749e-02
-6.189223751425743103e-02
-5.813707783818244934e-02
7.312816381454467773e-02
-1.331722550094127655e-02
-2.990316599607467651e-02
4.911237955093383789e-02
2.238128148019313812e-02
-6.693909317255020142e-02
2.663253434002399445e-02
-8.015576750040054321e-03
3.474675863981246948e-02
6.465185433626174927e-02
5.268452689051628113e-02
-3.335754445288330317e-04
-2.472493611276149750e-02
-5.305180698633193970e-02
-1.019468065351247787e-02
-2.855026908218860626e-02
-1.167873293161392212e-02
8.833691477775573730e-03
1.515989773906767368e-03
1.307510392507538199e-04
-2.536962926387786865e-02
-2.457357570528984070e-02
-5.361849069595336914e-02
-6.626870483160018921e-02
-5.881201941519975662e-03
7.028232514858245850e-02
-1.996767707169055939e-02
-5.520178005099296570e-02
2.119937445968389511e-03
6.306665390729904175e-02
3.276956081390380859e-02
2.261850051581859589e-02
-1.192585565149784088e-02
-6.304198503494262695e-02
-6.052579730749130249e-02
-4.807800054550170898e-02
-6.360900122672319412e-03
3.110855072736740112e-02
3.943416103720664978e-02
-1.574354805052280426e-02
-5.440900474786758423e-02
5.229497328400611877e-02
1.671652123332023621e-02
2.721101045608520508e-02
2.412735018879175186e-03
4.459662362933158875e-02
-4.924549907445907593e-02
-1.367420796304941177e-02
-5.241717770695686340e-02
-1.778880320489406586e-02
5.757824331521987915e-02
-4.489150643348693848e-02
1.522601023316383362e-02
-7.716349512338638306e-02
2.376814559102058411e-02
6.333006173372268677e-02
1.766402646899223328e-02
3.425655514001846313e-02
-7.831970602273941040e-02
-1.731234602630138397e-02
-1.701208390295505524e-02
4.716203734278678894e-02
5.174915120005607605e-02
-1.773822307586669922e-02
4.739603400230407715e-02
-5.612407997250556946e-02
7.468273863196372986e-03
2.643369697034358978e-02
-1.919650845229625702e-02
-7.156773656606674194e-02
-1.879396103322505951e-02
-2.464761771261692047e-02
8.867262862622737885e-03
-9.152717888355255127e-03
6.602839380502700806e-02
-3.279319033026695251e-02
-5.896471440792083740e-02
2.227222733199596405e-02
1.017087511718273163e-02
2.915246784687042236e-02
-1.784434355795383453e-02
1.343901501968502998e-03
4.309634119272232056e-02
-1.902359770610928535e-03
-2.134011127054691315e-02
3.411047905683517456e-02
5.264705792069435120e-02
4.629306122660636902e-02
3.218681784346699715e-03
-4.142616689205169678e-02
2.013670979067683220e-03
5.317936837673187256e-02
6.587357819080352783e-02
1.071319216862320900e-03
-4.610290750861167908e-02
4.700309783220291138e-02
-4.032427445054054260e-02
-7.649555802345275879e-02
7.810857892036437988e-02
5.983736738562583923e-02
-2.773136459290981293e-02
7.933083176612854004e-02
-5.238783080130815506e-03
8.447555452585220337e-02
2.045161649584770203e-02
2.512315660715103149e-02
-5.844616331160068512e-03
-6.855354458093643188e-02
-5.969546269625425339e-03
-7.813294976949691772e-02
4.357778280973434448e-02
-2.406794950366020203e-02
-2.697349712252616882e-02
7.486834190785884857e-03
-2.436383161693811417e-03
5.974244698882102966e-02
-9.964092634618282318e-03
-1.250767335295677185e-02
6.740739196538925171e-02
-1.855751127004623413e-02
5.689051467925310135e-03
-7.101816684007644653e-02
6.104770582169294357e-03
-1.402862183749675751e-02
-3.505281731486320496e-02
7.585534453392028809e-02
8.462978899478912354e-02
-4.730294272303581238e-02
-7.100296020507812500e-02
4.302050173282623291e-02
1.641518436372280121e-02
5.931577831506729126e-02
-4.496883135288953781e-03
-3.918359579984098673e-04
3.641786798834800720e-02
-2.258342131972312927e-02
-7.175476104021072388e-02
-4.747149720788002014e-02
2.000333555042743683e-02
-3.557294234633445740e-02
6.543987244367599487e-02
2.185166068375110626e-02
-3.491416946053504944e-02
-2.934982813894748688e-02
5.701780319213867188e-02
4.624843597412109375e-03
-6.179069355130195618e-02
-1.115939766168594360e-02
-1.054325979202985764e-02
-2.552852034568786621e-02
3.604277595877647400e-02
-3.460106998682022095e-02
-9.318248927593231201e-02
8.946899324655532837e-03
-8.734285086393356323e-02
1.488188863731920719e-03
3.320145606994628906e-02
5.097322911024093628e-02
-3.889418765902519226e-02
5.338606983423233032e-02
-2.859070338308811188e-02
-1.245901361107826233e-02
6.361888255923986435e-03
4.483310505747795105e-02
3.965322673320770264e-02
-1.314866542816162109e-02
-3.996700420975685120e-02
-2.279695495963096619e-02
-8.660753816366195679e-02
9.168327599763870239e-02
6.199211627244949341e-02
-7.057888060808181763e-02
5.531057715415954590e-03
-1.486839912831783295e-02
-2.783359214663505554e-02
8.587092906236648560e-02
2.819939702749252319e-02
-3.132099285721778870e-02
2.834196388721466064e-02
-2.051616646349430084e-02
2.339686453342437744e-02
1.082904916256666183e-02
2.783933840692043304e-02
-9.453915990889072418e-03
-9.452987578697502613e-04
-5.508254840970039368e-02
1.540658902376890182e-02
4.553045146167278290e-03
-5.326396599411964417e-02
-1.978740096092224121e-02
4.771515727043151855e-02
-2.916085999459028244e-03
8.738307282328605652e-03
4.152439534664154053e-03
2.054219692945480347e-02
-9.270735830068588257e-02
2.994657307863235474e-02
-2.344782836735248566e-02
5.130818113684654236e-02
-4.860314354300498962e-02
2.569851651787757874e-02
2.594594843685626984e-02
-4.647922143340110779e-02
-4.672618955373764038e-02
2.306192368268966675e-02
-3.092688508331775665e-02
-2.089804783463478088e-02
-8.061594329774379730e-03
-5.809095874428749084e-02
5.496406182646751404e-02
-2.898208238184452057e-02
-4.669585078954696655e-02
7.468266785144805908e-02
2.777231112122535706e-02
2.072943560779094696e-02
4.173972085118293762e-02
3.628449887037277222e-02
-1.021881937049329281e-03
4.624179378151893616e-02
6.348066031932830811e-03
5.472915247082710266e-02
1.335422322154045105e-02
-8.262042701244354248e-02
6.307593733072280884e-02
6.914852559566497803e-02
5.592597275972366333e-02
-1.845873706042766571e-02
-3.313000500202178955e-02
7.804809603840112686e-03
6.357726175338029861e-03
-3.021425753831863403e-02
7.067034393548965454e-02
-3.385500609874725342e-02
-7.943356782197952271e-02
-7.418027520179748535e-02
4.951395466923713684e-02
7.979859597980976105e-03
9.080521017313003540e-02
-6.664567440748214722e-02
-6.210149079561233521e-02
-3.879302367568016052e-02
1.271391194313764572e-02
-5.500065535306930542e-02
-6.199746578931808472e-02
9.697623550891876221e-02
-6.949345022439956665e-02
-2.563747204840183258e-02
-8.582544326782226562e-02
-2.280709100887179375e-03
1.234689075499773026e-02
2.716431580483913422e-02
1.404074858874082565e-02
-1.897461712360382080e-01
-9.531848132610321045e-02
-3.196419030427932739e-02
-2.615152485668659210e-02
3.942325338721275330e-02
-1.467991899698972702e-02
6.168358400464057922e-02
8.268334786407649517e-04
4.778862744569778442e-02
6.727705150842666626e-02
-2.248474024236202240e-02
-3.144196420907974243e-02
2.844353206455707550e-03
5.709538981318473816e-02
5.121097434312105179e-03
-3.544915840029716492e-02
3.026965819299221039e-02
1.962844841182231903e-02
-5.875141173601150513e-02
-1.697161793708801270e-02
-2.349336445331573486e-02
-2.464884519577026367e-02
4.596712812781333923e-02
-3.214801475405693054e-02
6.465802341699600220e-02
-2.740891836583614349e-02
-4.178958758711814880e-02
4.547689482569694519e-02
6.303775310516357422e-02
2.090084180235862732e-02
-6.106077507138252258e-02
9.125575423240661621e-02
8.734563738107681274e-02
-6.291334982961416245e-03
-3.255206719040870667e-02
4.627392813563346863e-02
-1.346142310649156570e-02
2.326084300875663757e-02
5.799281969666481018e-02
1.994348503649234772e-02
4.943879903294146061e-04
-1.061171758919954300e-02
-5.786246433854103088e-02
4.143133293837308884e-03
2.852027490735054016e-02
-3.946832846850156784e-03
2.159899659454822540e-02
4.753984138369560242e-02
-2.800779417157173157e-02
1.112174708396196365e-02
-1.754727587103843689e-02
3.538437187671661377e-02
2.419436722993850708e-02
5.768363364040851593e-03
-8.703068830072879791e-03
-1.698972098529338837e-02
4.502089694142341614e-02
-8.879460394382476807e-03
-1.175174489617347717e-02
4.544207453727722168e-02
2.609550394117832184e-02
3.555509960278868675e-03
5.721113458275794983e-02
9.488898515701293945e-02
-2.269439585506916046e-02
-2.376574277877807617e-02
-4.318590462207794189e-02
6.292665377259254456e-03
4.565818235278129578e-03
1.740097999572753906e-02
-2.921719662845134735e-02
-2.958640642464160919e-02
8.244804106652736664e-03
-7.129252701997756958e-02
-4.755866900086402893e-02
5.213033780455589294e-02
-1.295560877770185471e-02
-2.922398410737514496e-02
-8.747210353612899780e-02
3.568680211901664734e-02
2.579814381897449493e-02
-5.205389857292175293e-02
-7.795318961143493652e-02
-4.197164624929428101e-02
-2.478733845055103302e-02
3.727496415376663208e-02
-1.045105829834938049e-01
3.297114744782447815e-02
-1.067763473838567734e-02
-1.274270657449960709e-02
4.045801237225532532e-02
5.912695825099945068e-02
-4.949976503849029541e-02
-1.446528267115354538e-02
-9.054429829120635986e-04
-1.400051545351743698e-02
3.615162894129753113e-02
-2.651269361376762390e-02
2.099671028554439545e-02
3.039614856243133545e-02
-4.524112492799758911e-02
-3.785716762649826705e-05
2.946854941546916962e-02
-1.306103914976119995e-01
-1.684953342191874981e-03
3.714785724878311157e-02
5.794176831841468811e-02
6.404279917478561401e-02
-4.080456495285034180e-02
-6.841493397951126099e-02
-8.398449979722499847e-03
1.725565642118453979e-02
4.066915251314640045e-03
-4.834799841046333313e-02
6.633245944976806641e-02
-2.666088193655014038e-02
2.369868382811546326e-02
-1.615744829177856445e-02
9.230609051883220673e-03
6.882813572883605957e-02
-8.889503777027130127e-03
-1.017891429364681244e-02
5.479910224676132202e-02
3.080400824546813965e-02
2.976217679679393768e-02
-1.464043091982603073e-02
5.335077643394470215e-02
4.211980849504470825e-02
-3.360026329755783081e-02
5.946164205670356750e-02
-6.908318400382995605e-02
-4.725615307688713074e-02
-5.187995359301567078e-02
-4.727992787957191467e-02
7.862063497304916382e-02
-1.262972038239240646e-02
5.601983144879341125e-02
4.587680101394653320e-02
3.877218812704086304e-02
-2.909651584923267365e-02
-4.837169870734214783e-02
8.236041665077209473e-02
-7.111948728561401367e-02
-6.803511828184127808e-02
2.437854185700416565e-02
-1.018895134329795837e-01
-6.351688504219055176e-02
-1.627597771584987640e-02
-2.219953201711177826e-02
2.709399349987506866e-02
3.677215427160263062e-02
1.327867712825536728e-02
2.286663465201854706e-02
-5.004717968404293060e-03
6.702765822410583496e-02
2.231534756720066071e-02
2.750582806766033173e-02
2.866076247300952673e-04
1.333123352378606796e-02
4.302724450826644897e-02
4.323966428637504578e-02
2.750625088810920715e-02
7.486455608159303665e-03
4.039847105741500854e-02
2.064382657408714294e-02
-3.780254721641540527e-02
3.300738707184791565e-02
-1.794534549117088318e-02
-6.549947708845138550e-02
7.769429357722401619e-04
2.137938514351844788e-02
5.758903175592422485e-02
-5.657226219773292542e-02
-3.012830018997192383e-02
5.735383927822113037e-02
-3.682620078325271606e-02
4.532150551676750183e-02
-3.234526142477989197e-02
1.490138471126556396e-03
-6.408634036779403687e-02
-6.150561943650245667e-02
3.777753189206123352e-02
2.588376961648464203e-02
4.178194701671600342e-02
6.188678741455078125e-02
-1.591940224170684814e-02
1.154739316552877426e-02
9.768915176391601562e-02
4.375787451863288879e-02
-1.794569194316864014e-02
-3.249628469347953796e-02
-2.691287174820899963e-02
-1.452186238020658493e-02
1.872340589761734009e-02
-3.698164224624633789e-02
1.828015595674514771e-02
-4.557990282773971558e-02
3.709724545478820801e-02
-3.322649374604225159e-02
8.158238232135772705e-02
-5.522987246513366699e-02
-7.965123653411865234e-02
-4.881081357598304749e-02
6.768749095499515533e-03
-4.133819043636322021e-02
-4.400651901960372925e-03
2.163712494075298309e-02
-1.647908613085746765e-02
-1.172759477049112320e-02
-1.032632067799568176e-01
6.638107448816299438e-02
4.341260716319084167e-02
-4.784958437085151672e-02
3.715993836522102356e-02
9.220048040151596069e-02
1.197293307632207870e-02
-1.705255918204784393e-02
-6.868647783994674683e-02
6.011791061609983444e-03
-2.502474561333656311e-02
2.856806665658950806e-02
-3.365300968289375305e-02
-1.213819012045860291e-01
-6.240120157599449158e-03
6.021828204393386841e-02
-5.742607265710830688e-02
-8.304844796657562256e-02
-2.887931466102600098e-02
-4.591640550643205643e-03
2.482161484658718109e-02
-1.797340437769889832e-02
-6.560012698173522949e-04
2.071424014866352081e-02
-3.000501310452818871e-03
3.286666050553321838e-02
1.193591021001338959e-02
7.890273816883563995e-03
2.453658729791641235e-02
-1.160143525339663029e-03
5.665505677461624146e-02
-1.364673394709825516e-02
3.987589105963706970e-02
-2.395030856132507324e-02
1.557424757629632950e-02
-1.609269343316555023e-02
1.974912732839584351e-02
2.986103855073451996e-02
-2.523795515298843384e-02
-1.160127520561218262e-01
6.252095103263854980e-03
-4.310902208089828491e-02
2.172017470002174377e-02
-1.920546032488346100e-02
-1.376644335687160492e-02
-2.155332453548908234e-02
2.610658295452594757e-03
-2.250070124864578247e-02
-2.625529281795024872e-02
-5.380617827177047729e-02
-2.538561634719371796e-02
5.935536231845617294e-03
-3.448998555541038513e-02
-2.903984114527702332e-02
2.870223112404346466e-02
-2.136641414836049080e-03
7.818771153688430786e-02
5.338615551590919495e-02
5.327258724719285965e-03
4.076493903994560242e-02
6.798839569091796875e-02
-1.804495928809046745e-03
-4.492768202908337116e-04
3.279429301619529724e-02
-2.289082482457160950e-02
5.218491330742835999e-02
-5.668040364980697632e-03
3.485443012323230505e-04
4.428317025303840637e-02
-7.435585558414459229e-02
-3.075234219431877136e-02
2.644127979874610901e-02
7.853711396455764771e-02
4.110209271311759949e-02
3.329143300652503967e-02
-7.381285727024078369e-02
-2.375986613333225250e-02
8.766554296016693115e-03
5.790831148624420166e-02
-2.794909849762916565e-02
5.761674791574478149e-02
-8.515526540577411652e-03
1.802103221416473389e-02
-4.528765007853507996e-02
-4.695860669016838074e-02
-4.204895719885826111e-02
5.930583178997039795e-02
6.511939316987991333e-02
5.492686107754707336e-02
-2.879879809916019440e-02
3.647946566343307495e-02
-1.468034274876117706e-02
1.320658600889146328e-03
2.983655221760272980e-02
2.004632726311683655e-03
4.650120437145233154e-02
3.129770979285240173e-02
-6.489457562565803528e-03
3.995855897665023804e-02
-1.925039663910865784e-02
3.149465098977088928e-02
3.372272476553916931e-03
2.745728939771652222e-03
5.882572755217552185e-02
7.161827385425567627e-02
3.441871702671051025e-02
-1.744022034108638763e-02
4.878665134310722351e-02
4.173911735415458679e-02
4.771141707897186279e-02
5.688410997390747070e-02
-1.137447729706764221e-02
-9.078134782612323761e-03
3.365985304117202759e-02
2.906596055254340172e-03
-6.028375774621963501e-02
5.642165243625640869e-02
-1.352048944681882858e-02
1.381330285221338272e-02
-4.745098203420639038e-02
-4.676119983196258545e-02
-5.114283040165901184e-02
3.306869789958000183e-02
2.876847796142101288e-02
-1.048600524663925171e-01
3.910684585571289062e-02
2.392666600644588470e-02
1.194013375788927078e-02
-3.775759413838386536e-02
-1.495066750794649124e-02
2.859099768102169037e-02
1.273288484662771225e-02
2.397749107331037521e-03
-2.610239200294017792e-02
4.708956182003021240e-02
-3.739114105701446533e-02
-6.639377772808074951e-02
4.776807129383087158e-02
-1.765874214470386505e-02
3.854503110051155090e-02
-1.151144411414861679e-02
3.129193559288978577e-02
5.052126199007034302e-02
2.550635859370231628e-02
-3.545161709189414978e-02
-4.540280997753143311e-02
7.983224093914031982e-02
-5.487488582730293274e-02
-3.340440243482589722e-02
-2.683597989380359650e-02
-8.146388083696365356e-02
-2.144560590386390686e-02
-2.181305736303329468e-02
3.912605717778205872e-02
4.132498055696487427e-02
7.168074697256088257e-02
-2.492034807801246643e-02
-2.052425406873226166e-02
6.198323518037796021e-02
-1.542389020323753357e-02
2.180838584899902344e-02
-1.746785012073814869e-03
3.799368441104888916e-02
5.615935474634170532e-02
-5.046713724732398987e-02
-1.429700572043657303e-02
-4.595723748207092285e-02
-1.068051904439926147e-01
-7.980989664793014526e-02
9.122307412326335907e-03
-6.633173208683729172e-03
1.101140119135379791e-02
3.027496859431266785e-02
-3.765203873626887798e-04
-1.869164407253265381e-02
5.203651264309883118e-02
1.897684484720230103e-02
-3.029786422848701477e-02
1.871846243739128113e-02
-3.639078512787818909e-02
2.784319780766963959e-02
2.802302315831184387e-02
4.731999337673187256e-02
9.234271012246608734e-03
1.071893330663442612e-02
-2.818315848708152771e-02
2.651235554367303848e-03
-5.206046625971794128e-02
-6.233545392751693726e-02
9.790400974452495575e-03
2.013581804931163788e-02
-1.025110576301813126e-02
3.957088291645050049e-02
-3.965205978602170944e-03
-2.997128106653690338e-02
-3.140454366803169250e-02
7.857530564069747925e-02
2.445416152477264404e-02
2.274907752871513367e-02
2.426414284855127335e-03
6.274620443582534790e-02
-6.205011531710624695e-02
1.226205565035343170e-02
3.513618139550089836e-04
-3.349482268095016479e-02
-1.161778718233108521e-02
-4.707995429635047913e-02
2.740144729614257812e-02
2.103420719504356384e-02
3.580395132303237915e-02
3.443708643317222595e-02
-5.889664404094219208e-03
-5.668410286307334900e-02
3.144859150052070618e-02
2.747515030205249786e-02
6.270007044076919556e-02
1.453605573624372482e-02
9.415268152952194214e-02
6.469514966011047363e-02
3.654613345861434937e-02
-9.635148942470550537e-02
-1.500013284385204315e-02
-1.285529881715774536e-02
-3.657972812652587891e-02
-4.672799259424209595e-02
-1.247513666749000549e-02
-3.468240424990653992e-02
-2.997740171849727631e-02
3.031525947153568268e-02
-6.974610965698957443e-03
-3.962709382176399231e-02
-4.911305382847785950e-03
9.197726845741271973e-03
4.563566297292709351e-02
6.225692108273506165e-02
-4.621220752596855164e-03
3.239398822188377380e-02
-1.378994993865489960e-02
6.471280008554458618e-02
-7.482358068227767944e-02
-7.873071730136871338e-02
-4.988319054245948792e-02
2.535741776227951050e-02
-3.768908604979515076e-02
-6.916826218366622925e-02
7.005109917372465134e-03
3.255417570471763611e-02
-5.448775365948677063e-02
-2.430913969874382019e-02
5.099760834127664566e-03
-1.778309582732617855e-03
-4.738456010818481445e-02
-6.880316138267517090e-02
-4.692922905087471008e-02
1.622894313186407089e-03
1.018589828163385391e-02
3.105236776173114777e-02
-2.426805905997753143e-03
-1.849973946809768677e-02
7.351108640432357788e-02
6.499470025300979614e-02
-1.659229397773742676e-02
4.720410704612731934e-02
-6.944748759269714355e-02
-1.678614690899848938e-02
-4.985785111784934998e-02
-5.791987292468547821e-03
-4.764727130532264709e-02
1.626316085457801819e-02
1.482165884226560593e-02
8.886028081178665161e-03
-2.905264683067798615e-02
-5.201220884919166565e-02
-7.647743076086044312e-02
-5.893448740243911743e-02
-2.841303683817386627e-02
-4.163686931133270264e-02
2.608363050967454910e-03
-3.098048642277717590e-02
1.761904731392860413e-02
5.973050743341445923e-02
-4.997564852237701416e-02
-7.345105055719614029e-03
2.399512752890586853e-02
-2.318969927728176117e-02
-3.632003813982009888e-02
1.603139936923980713e-02
-8.858121931552886963e-02
8.634010329842567444e-03
5.381646007299423218e-02
-1.296272967010736465e-02
-2.043070457875728607e-02
3.366435319185256958e-02
-8.893352746963500977e-02
3.298657760024070740e-02
3.627456352114677429e-02
-2.828462608158588409e-02
-3.032635897397994995e-02
-1.274415012449026108e-02
1.159954443573951721e-02
-1.755166798830032349e-02
-3.284498304128646851e-02
-1.504067983478307724e-02
-4.621293768286705017e-02
-1.928977482020854950e-02
-3.484607115387916565e-02
1.467211265116930008e-02
-5.712262820452451706e-03
-7.612453307956457138e-03
4.789750650525093079e-02
9.343942627310752869e-03
-3.245008119847625494e-04
2.471534162759780884e-02
-2.527594566345214844e-03
3.875558078289031982e-02
-2.482101321220397949e-02
-5.620227381587028503e-02
4.208400100469589233e-02
-7.562963757663965225e-03
-3.390873968601226807e-02
5.928277224302291870e-02
-4.071917384862899780e-02
6.100818142294883728e-02
1.438153441995382309e-02
-2.785441279411315918e-02
-4.289186000823974609e-02
-3.453462704783305526e-05
-6.888644397258758545e-02
-7.182019297033548355e-03
-6.185564026236534119e-02
-4.837391898036003113e-02
6.042047962546348572e-02
-8.686804026365280151e-02
3.054688870906829834e-02
-1.390177384018898010e-02
-3.359014540910720825e-02
3.296133130788803101e-02
2.130896598100662231e-02
-5.363048613071441650e-02
-4.881035909056663513e-02
2.758631482720375061e-02
1.599612459540367126e-02
3.675781562924385071e-02
3.197419270873069763e-02
-2.797071635723114014e-02
9.520319290459156036e-03
4.552916809916496277e-02
6.863842904567718506e-02
7.621736824512481689e-02
-3.059429489076137543e-02
3.854833915829658508e-02
-3.924474492669105530e-02
-2.946003340184688568e-02
-3.403707593679428101e-02
-2.749562263488769531e-02
1.417395565658807755e-02
6.036312133073806763e-02
1.188474521040916443e-02
-2.280016802251338959e-02
3.133958205580711365e-02
7.834894582629203796e-03
-4.148717224597930908e-02
2.623769640922546387e-02
-4.954522475600242615e-02
4.533099755644798279e-02
-6.474965810775756836e-02
1.858329400420188904e-02
6.208686972968280315e-04
4.605493973940610886e-03
-3.307153657078742981e-02
-6.243501603603363037e-02
-3.154464066028594971e-02
-4.269542545080184937e-02
1.588820479810237885e-02
4.117739945650100708e-02
-1.396468561142683029e-02
4.682979360222816467e-02
1.548128854483366013e-02
6.808966398239135742e-02
-1.770271547138690948e-02
-6.173499301075935364e-02
6.772918254137039185e-02
5.668818578124046326e-02
-5.847439542412757874e-02
2.555634640157222748e-02
-1.431077904999256134e-02
-4.429597407579421997e-02
3.455946594476699829e-02
5.519565567374229431e-02
-3.652631863951683044e-02
3.267646953463554382e-02
-1.711283996701240540e-02
-2.108390443027019501e-02
8.293405920267105103e-02
-2.434416301548480988e-02
-1.153290970250964165e-03
-2.248539030551910400e-02
-2.850727364420890808e-02
-1.123043801635503769e-02
-6.552542746067047119e-02
6.161320954561233521e-02
-9.874824434518814087e-02
-2.956253290176391602e-02
2.988848835229873657e-02
-1.223603636026382446e-02
-3.210316225886344910e-02
2.070833696052432060e-03
6.855535786598920822e-03
8.182808756828308105e-03
4.352820105850696564e-03
3.709672391414642334e-02
-2.204228192567825317e-02
2.123713493347167969e-02
-3.436584398150444031e-02
-1.894300431013107300e-02
4.360424354672431946e-02
-8.704654872417449951e-03
-2.796875126659870148e-02
-5.653595924377441406e-02
3.144900873303413391e-02
4.342492669820785522e-02
-2.298562228679656982e-02
1.463677454739809036e-02
7.385560870170593262e-02
5.278449505567550659e-02
1.353260409086942673e-02
-5.760556831955909729e-02
4.049696400761604309e-02
5.598528683185577393e-02
-4.884699359536170959e-02
6.641976535320281982e-02
-7.383567281067371368e-03
-1.241626776754856110e-02
-7.240357995033264160e-02
2.707953937351703644e-02
-4.232470318675041199e-02
-1.171644032001495361e-02
-7.066529244184494019e-02
-2.769613638520240784e-03
4.324230924248695374e-02
-3.933529183268547058e-02
1.209438312798738480e-03
3.694099560379981995e-02
8.630170486867427826e-03
3.245254606008529663e-02
3.295814618468284607e-02
6.950318068265914917e-02
-2.294202335178852081e-02
2.202901616692543030e-02
-2.508516050875186920e-02
5.270978435873985291e-02
1.803288981318473816e-02
-3.744808956980705261e-02
-1.580835692584514618e-02
-4.812021926045417786e-02
3.086290322244167328e-03
-8.314762264490127563e-02
2.098755724728107452e-02
-1.987043395638465881e-02
-1.549818553030490875e-02
-3.401532024145126343e-02
7.723386585712432861e-02
1.467481441795825958e-02
-3.428647294640541077e-02
-1.409051474183797836e-02
3.690797463059425354e-02
-1.233924180269241333e-03
5.699145048856735229e-02
-3.539202362298965454e-02
-3.494346886873245239e-02
-4.263531416654586792e-02
4.433703608810901642e-03
-1.855647563934326172e-02
-2.440595068037509918e-02
-7.413081824779510498e-02
5.827448517084121704e-02
4.873411357402801514e-02
5.724857375025749207e-02
-3.042269125580787659e-02
-2.675857767462730408e-02
-4.254460334777832031e-03
2.474372275173664093e-02
-6.787831336259841919e-02
-2.150639891624450684e-02
5.516714975237846375e-02
8.391819149255752563e-02
-1.455619279295206070e-02
-4.794272780418395996e-02
1.628948934376239777e-02
-4.957344383001327515e-02
-5.311260372400283813e-02
-3.252376616001129150e-02
-2.844489878043532372e-03
3.395402804017066956e-02
-1.094784140586853027e-01
4.572507366538047791e-02
5.372571200132369995e-02
5.123091861605644226e-02
-1.151687186211347580e-02
-3.422415629029273987e-02
6.851562764495611191e-03
8.407600969076156616e-02
-5.825763940811157227e-02
2.018623612821102142e-02
2.636527642607688904e-02
5.042673647403717041e-02
1.045099273324012756e-02
-3.211706504225730896e-02
-3.552237898111343384e-02
-3.420547023415565491e-02
4.485882073640823364e-02
5.723555386066436768e-02
3.442058712244033813e-02
3.924392536282539368e-02
-1.036436576396226883e-02
1.656603440642356873e-02
-1.487545389682054520e-02
-2.069972082972526550e-02
-5.913827195763587952e-02
7.082413882017135620e-02
3.485122695565223694e-02
1.222711335867643356e-02
-2.086590277031064034e-03
7.648816704750061035e-02
1.698467507958412170e-02
-1.874964497983455658e-02
-2.967688255012035370e-03
-1.410399936139583588e-02
5.748404189944267273e-02
-4.275430459529161453e-03
6.090800836682319641e-02
-2.960655651986598969e-02
3.109160810708999634e-02
-4.527135565876960754e-02
-2.251963503658771515e-02
-7.681111246347427368e-02
-3.668988868594169617e-02
-1.727230660617351532e-02
7.065768539905548096e-02
4.211715608835220337e-02
-7.170671969652175903e-02
2.152166888117790222e-02
-4.946724697947502136e-02
2.039063908159732819e-02
2.522278577089309692e-02
-2.501804847270250320e-03
-6.869734078645706177e-02
-8.721751160919666290e-03
5.366748571395874023e-02
7.264720648527145386e-02
3.528224676847457886e-02
-1.904762536287307739e-02
4.663849249482154846e-02
8.373584132641553879e-04
1.571463793516159058e-02
1.694436371326446533e-02
6.500024348497390747e-03
2.327163144946098328e-02
1.698980107903480530e-02
1.853716559708118439e-02
-3.433791920542716980e-03
6.275296211242675781e-02
3.005766496062278748e-02
5.525783821940422058e-02
2.264915499836206436e-03
2.887532860040664673e-02
3.135944157838821411e-02
-1.193271111696958542e-02
-1.016485691070556641e-01
4.813820868730545044e-02
-2.511951699852943420e-02
-5.756010115146636963e-02
-3.045665845274925232e-02
-6.220342218875885010e-02
-7.677286863327026367e-03
5.137680470943450928e-02
-2.175393514335155487e-02
-2.960896492004394531e-02
1.291906647384166718e-02
-9.214697405695915222e-03
-2.398365363478660583e-02
4.050360247492790222e-02
4.453738033771514893e-02
-4.174085706472396851e-02
7.617240399122238159e-02
4.001250863075256348e-02
-1.679669320583343506e-02
-5.939840525388717651e-02
-1.497763395309448242e-02
-7.493227254599332809e-03
9.098379313945770264e-02
2.613576874136924744e-02
-5.111592635512351990e-02
4.363626241683959961e-02
3.815121203660964966e-02
2.355674095451831818e-02
-5.717233754694461823e-03
8.732151240110397339e-02
-9.693259745836257935e-02
9.995285421609878540e-03
1.097957976162433624e-02
-6.090332567691802979e-02
2.672167867422103882e-02
-4.033769294619560242e-02
4.294641688466072083e-02
7.779433578252792358e-02
2.521077170968055725e-02
-5.505381524562835693e-02
3.727229684591293335e-02
-5.734648182988166809e-02
-3.205290064215660095e-02
-4.896139353513717651e-02
-5.176972597837448120e-02
-5.174512788653373718e-02
-3.593053668737411499e-02
-6.836652755737304688e-02
-3.277796506881713867e-02
-5.180067196488380432e-02
-2.475338988006114960e-02
4.639784619212150574e-02
-1.859186962246894836e-02
2.399856783449649811e-02
-3.243750333786010742e-02
8.360411040484905243e-03
1.147159375250339508e-02
1.566804572939872742e-02
-2.124609891325235367e-03
-6.227369606494903564e-02
-5.524924024939537048e-03
-8.082141168415546417e-03
1.376678701490163803e-03
4.629733040928840637e-02
1.124479714781045914e-02
2.956810034811496735e-02
-1.434381934814155102e-03
-5.506490916013717651e-02
2.515097148716449738e-02
2.084311470389366150e-02
2.058535115793347359e-03
-3.856936469674110413e-02
-9.335951879620552063e-03
-1.693592523224651814e-03
4.636510089039802551e-02
-1.352977845817804337e-02
-1.318111643195152283e-02
3.555269539356231689e-02
-6.088059395551681519e-02
3.751502931118011475e-02
-2.819133806042373180e-04
-5.485375225543975830e-02
-1.814953424036502838e-02
6.140430644154548645e-02
-8.768154308199882507e-03
2.913811802864074707e-02
3.232774510979652405e-02
-3.107695654034614563e-02
-1.192196365445852280e-02
1.005084142088890076e-01
-5.912429466843605042e-02
-2.937183529138565063e-02
5.534848198294639587e-03
-3.820793330669403076e-02
4.498617257922887802e-03
-7.898643380030989647e-04
-9.882342070341110229e-03
2.779514528810977936e-02
-2.637270651757717133e-02
9.015475958585739136e-02
-3.700211644172668457e-02
3.581009805202484131e-02
-9.730946272611618042e-03
1.361505407840013504e-02
7.796172052621841431e-02
-4.899635165929794312e-02
5.931262299418449402e-02
2.224369533360004425e-02
7.480904925614595413e-03
-9.526278823614120483e-03
5.288384109735488892e-02
-4.290518909692764282e-02
7.715226616710424423e-03
-3.172612190246582031e-02
7.037319988012313843e-02
-3.122790250927209854e-03
-1.004304923117160797e-02
5.508635193109512329e-02
-6.411362439393997192e-02
-4.475147277116775513e-02
3.021088428795337677e-02
8.540762960910797119e-02
-5.084278434514999390e-02
2.141856960952281952e-02
4.166644439101219177e-02
-1.144656538963317871e-02
4.907384514808654785e-02
1.155380252748727798e-02
-3.340315073728561401e-02
-5.215517058968544006e-02
-2.860004827380180359e-02
3.816534206271171570e-02
-2.497431635856628418e-02
-8.683771640062332153e-02
2.751135267317295074e-02
2.255344949662685394e-02
1.886395737528800964e-02
-5.197956413030624390e-02
2.144114114344120026e-02
-4.210711643099784851e-02
2.456763572990894318e-02
-4.327213764190673828e-02
-3.768720850348472595e-02
-4.139778763055801392e-02
4.775364696979522705e-02
-2.530504204332828522e-02
-4.113393276929855347e-02
-2.351251617074012756e-02
1.262146085500717163e-01
-6.838562339544296265e-02
-2.216858789324760437e-03
-4.704894870519638062e-02
-1.868879422545433044e-02
-5.319238454103469849e-02
3.185367386322468519e-04
3.761543333530426025e-02
-1.361185312271118164e-02
2.346137538552284241e-02
1.940069906413555145e-02
-3.609813004732131958e-02
-1.934466138482093811e-02
-3.338310495018959045e-02
-6.137105822563171387e-02
-7.814275450073182583e-04
-3.567148000001907349e-03
5.018592253327369690e-02
5.521963164210319519e-02
-5.439125001430511475e-02
6.902513653039932251e-02
4.589711129665374756e-02
3.534259647130966187e-02
8.486162871122360229e-02
4.369108006358146667e-02
5.705983191728591919e-02
-2.759766939561814070e-04
-9.882578626275062561e-03
8.487219363451004028e-02
3.634956479072570801e-02
4.423599690198898315e-02
8.790480904281139374e-03
-2.736821211874485016e-02
2.045914158225059509e-02
1.137641444802284241e-02
8.804402314126491547e-03
-4.405085369944572449e-02
3.182973340153694153e-02
-1.333485078066587448e-02
-4.792611300945281982e-02
-4.106923192739486694e-02
-5.622246488928794861e-02
3.968428354710340500e-03
3.678715601563453674e-02
1.029780693352222443e-02
-2.102092094719409943e-02
1.361106894910335541e-02
4.206911101937294006e-02
1.059618429280817509e-03
4.174768924713134766e-02
5.869617313146591187e-02
3.522755578160285950e-02
1.282130461186170578e-02
-3.704203292727470398e-02
-6.300394237041473389e-02
6.088342890143394470e-02
5.191728845238685608e-02
-1.199592556804418564e-02
-1.930863782763481140e-02
-7.314635440707206726e-03
3.474331647157669067e-02
-3.277678042650222778e-02
-8.461868390440940857e-03
4.149330779910087585e-02
-4.520509764552116394e-02
6.249431148171424866e-02
-4.837705940008163452e-02
-1.572361439466476440e-01
1.370184123516082764e-02
3.186964895576238632e-04
-2.019719965755939484e-02
5.452816933393478394e-02
2.271987963467836380e-03
-1.316173933446407318e-02
1.856530271470546722e-02
9.124629944562911987e-02
4.922316223382949829e-02
4.526559635996818542e-02
-8.767587691545486450e-02
-2.552511356770992279e-02
2.695728838443756104e-02
2.746248058974742889e-02
4.773980379104614258e-02
3.441026806831359863e-02
-4.201075434684753418e-02
-4.154150187969207764e-02
-1.863763551227748394e-03
3.319536149501800537e-02
-3.193055838346481323e-02
-5.775497853755950928e-02
-2.415927313268184662e-02
7.524824142456054688e-02
2.368026413023471832e-02
7.641415297985076904e-02
4.086827859282493591e-02
-4.185791313648223877e-02
3.754889965057373047e-02
-3.081521950662136078e-02
-2.653287351131439209e-02
3.405075147747993469e-02
5.164404213428497314e-02
-6.272679660469293594e-03
6.024362891912460327e-02
-3.055283799767494202e-02
-3.103803470730781555e-02
5.416255816817283630e-02
-5.891158059239387512e-02
7.788223773241043091e-02
4.004541039466857910e-02
-1.966748386621475220e-02
-4.820321127772331238e-02
2.612395584583282471e-02
9.396879933774471283e-03
4.970480129122734070e-02
6.101160496473312378e-02
-4.934350773692131042e-02
2.695515938103199005e-02
8.531855046749114990e-02
2.147672057617455721e-04
-1.508818287402391434e-02
-4.507425054907798767e-02
4.734615236520767212e-02
-1.434180792421102524e-02
3.658628091216087341e-02
4.688655212521553040e-02
-9.859035722911357880e-03
-2.522181021049618721e-03
3.240036964416503906e-02
-8.615947514772415161e-02
4.720120504498481750e-02
-1.683713123202323914e-02
-2.924648672342300415e-02
1.391318067908287048e-02
1.507160812616348267e-02
-6.687115132808685303e-02
-3.581501916050910950e-02
-1.425263751298189163e-02
-3.617709502577781677e-02
1.300548017024993896e-02
-1.598904654383659363e-02
1.474107056856155396e-02
2.166546694934368134e-02
-4.682693630456924438e-02
-2.641190402209758759e-02
1.702567562460899353e-02
2.107833325862884521e-02
-1.108186971396207809e-02
2.094617858529090881e-02
-2.249649912118911743e-02
6.461090594530105591e-02
1.422562077641487122e-02
1.889429637230932713e-03
2.084922045469284058e-02
3.620284050703048706e-02
-3.631527069956064224e-03
-5.730857327580451965e-02
-2.684662491083145142e-02
-8.751059067435562611e-04
2.060860767960548401e-02
3.174083307385444641e-02
3.285530023276805878e-03
-3.614445403218269348e-02
2.985590137541294098e-02
-3.500042110681533813e-02
1.141509972512722015e-02
-3.790230304002761841e-02
7.794398814439773560e-02
7.315815240144729614e-02
-3.719041869044303894e-02
-1.548353396356105804e-02
-3.813768178224563599e-02
3.505662549287080765e-03
3.855596855282783508e-02
5.844838172197341919e-02
-8.322961628437042236e-02
-5.605102330446243286e-02
-4.027903825044631958e-02
6.024285778403282166e-02
4.366593062877655029e-02
-1.422166387783363461e-04
5.654111877083778381e-02
3.191434592008590698e-02
9.496547281742095947e-03
-4.955004528164863586e-02
2.282054163515567780e-02
-1.559403445571660995e-02
-1.304314564913511276e-02
-2.902399934828281403e-02
4.509452730417251587e-02
-5.130332708358764648e-02
1.973943412303924561e-02
2.887739427387714386e-02
2.685831114649772644e-02
-3.213025629520416260e-02
2.869051508605480194e-02
-7.906442135572433472e-02
-8.073870092630386353e-02
8.729447424411773682e-02
-2.201725915074348450e-02
1.443041767925024033e-02
-5.427269265055656433e-02
-8.074597455561161041e-03
1.135458704084157944e-02
6.617162376642227173e-02
3.793001919984817505e-02
5.902010947465896606e-02
4.053629003465175629e-03
9.453699924051761627e-03
-5.309122428297996521e-02
3.136630728840827942e-02
-5.571543704718351364e-03
7.177443057298660278e-02
5.009798705577850342e-02
1.416638260707259178e-03
7.403487712144851685e-02
-3.469451330602169037e-03
2.405849285423755646e-02
-2.183193527162075043e-02
-5.059201642870903015e-02
-6.188100203871726990e-02
7.431928999722003937e-03
6.600854545831680298e-02
-4.378620907664299011e-02
6.649334728717803955e-02
8.930780924856662750e-03
-3.085936792194843292e-02
-1.816071011126041412e-02
3.656993433833122253e-02
1.513536833226680756e-02
-1.186217553913593292e-02
-3.459259122610092163e-02
2.919089235365390778e-02
-6.205408275127410889e-02
2.442306093871593475e-02
-6.881713122129440308e-02
-5.571269616484642029e-02
-3.125404193997383118e-02
2.269766107201576233e-02
2.994079515337944031e-02
-1.084388419985771179e-02
-5.521113425493240356e-02
6.605467293411493301e-03
-1.298767048865556717e-02
3.889201954007148743e-02
6.608617305755615234e-02
2.129373326897621155e-02
-7.073085755109786987e-02
2.887075394392013550e-02
7.118629664182662964e-02
3.833222016692161560e-02
9.599634446203708649e-03
-4.476496949791908264e-02
9.739152155816555023e-03
-4.322133958339691162e-02
-4.970447719097137451e-02
-2.673537284135818481e-02
-1.449952181428670883e-02
-4.353234916925430298e-02
-2.710832841694355011e-02
3.635352710261940956e-03
-3.165209898725152016e-03
4.579716175794601440e-02
7.741759717464447021e-02
-7.240056246519088745e-02
3.335311636328697205e-02
-6.570272613316774368e-03
-5.620492994785308838e-02
4.735945910215377808e-02
5.790341272950172424e-02
-7.819753140211105347e-02
-7.537072151899337769e-02
1.202122587710618973e-02
-1.718259043991565704e-02
8.943255990743637085e-02
5.694871768355369568e-02
1.499289460480213165e-02
-3.383515402674674988e-02
-8.259979635477066040e-02
-2.591928280889987946e-02
-2.814979292452335358e-02
2.720024809241294861e-02
-3.205306828022003174e-02
8.903173729777336121e-03
2.948650531470775604e-02
4.143572971224784851e-02
4.088118672370910645e-02
-9.132543951272964478e-02
4.719836264848709106e-02
1.915480196475982666e-02
1.145078707486391068e-02
-3.651580959558486938e-02
2.878323383629322052e-02
-6.297658197581768036e-03
5.771530419588088989e-02
-1.110585313290357590e-02
5.556123703718185425e-02
1.227207598276436329e-03
-6.566564738750457764e-02
-3.921030834317207336e-02
2.026923187077045441e-02
5.963490158319473267e-02
3.471560031175613403e-02
3.899207338690757751e-02
5.575403198599815369e-02
6.052459403872489929e-02
-1.003175857476890087e-03
-7.732717785984277725e-03
-4.595416411757469177e-02
3.371727094054222107e-02
1.126153860241174698e-02
4.435934126377105713e-02
-3.146943077445030212e-02
-3.252067789435386658e-02
-2.689054049551486969e-02
2.046145685017108917e-02
4.569941386580467224e-02
4.570998996496200562e-02
1.499550696462392807e-02
-2.401782432571053505e-03
7.122900336980819702e-02
-5.299258977174758911e-02
-9.410402923822402954e-02
5.493940040469169617e-02
-9.550180286169052124e-02
2.629794925451278687e-02
3.419641032814979553e-02
8.870142046362161636e-04
3.057998791337013245e-02
-1.319284271448850632e-02
-3.088345564901828766e-02
1.143628917634487152e-02
2.211015485227108002e-02
-6.470654159784317017e-02
-3.910886496305465698e-02
-3.556824475526809692e-02
-4.667274653911590576e-02
1.391804963350296021e-02
-4.687967523932456970e-02
5.862154066562652588e-02
2.684194780886173248e-02
-3.888072023983113468e-05
1.782509684562683105e-02
-8.536082692444324493e-03
-7.445091847330331802e-03
3.001301176846027374e-02
-1.115094218403100967e-02
-2.451674779877066612e-03
-6.731730699539184570e-02
-1.251618098467588425e-02
-6.110663712024688721e-02
1.537427306175231934e-02
-5.787875875830650330e-02
5.775796994566917419e-02
2.099067717790603638e-02
-2.178472094237804413e-02
-8.262605220079421997e-02
6.088908389210700989e-02
-3.291861712932586670e-02
-8.470956236124038696e-03
2.310295961797237396e-02
-2.763470634818077087e-02
1.352449320256710052e-02
5.822817236185073853e-02
1.756984181702136993e-02
2.221021428704261780e-02
5.307854712009429932e-02
1.509045530110597610e-02
3.704781830310821533e-02
-1.600923761725425720e-02
-2.957005985081195831e-02
2.434696257114410400e-02
-5.362555850297212601e-03
-4.654763266444206238e-02
4.637718573212623596e-02
-1.736846752464771271e-02
3.821489959955215454e-02
3.043717890977859497e-02
3.055806085467338562e-02
-5.995883420109748840e-02
2.114432677626609802e-02
-3.408651798963546753e-02
3.663564845919609070e-02
-1.183571964502334595e-01
1.623237878084182739e-02
2.515825256705284119e-02
-4.979347344487905502e-03
5.778047069907188416e-02
-6.129119172692298889e-02
-1.076598302461206913e-03
2.999904006719589233e-02
-2.807017043232917786e-02
1.978034386411309242e-03
-5.640066787600517273e-02
1.038539409637451172e-02
-6.950772553682327271e-02
-6.657008826732635498e-02
-3.866332396864891052e-02
-2.848069556057453156e-02
-3.683415427803993225e-02
4.257610999047756195e-03
-1.788555644452571869e-02
-3.280245512723922729e-02
6.236966699361801147e-02
5.790179222822189331e-02
7.130695134401321411e-02
6.202620640397071838e-02
-6.434394419193267822e-02
4.450923879630863667e-04
-5.218938365578651428e-02
6.512070447206497192e-02
2.781733311712741852e-02
-4.116556793451309204e-02
-4.315823689103126526e-02
2.128244936466217041e-02
-3.545266389846801758e-02
-2.063112147152423859e-02
-6.963099539279937744e-02
-6.056520342826843262e-02
7.770389784127473831e-03
-1.226493809372186661e-02
-5.944836139678955078e-02
-6.125318352133035660e-03
5.490495264530181885e-02
-6.044343486428260803e-02
-4.616758599877357483e-02
3.919880464673042297e-02
-4.620866850018501282e-02
2.196902222931385040e-02
1.780390739440917969e-02
-2.061090059578418732e-02
4.461889155209064484e-03
-1.900593005120754242e-02
-3.114531561732292175e-02
4.396149516105651855e-02
1.706275157630443573e-02
5.772762745618820190e-02
4.094228148460388184e-02
2.538080140948295593e-02
3.554834052920341492e-02
-1.600511558353900909e-02
-2.049736119806766510e-02
-2.952916175127029419e-02
-1.153092458844184875e-02
4.028545320034027100e-02
4.682277515530586243e-02
8.356817066669464111e-02
-1.454689912497997284e-02
-7.535157352685928345e-02
3.066121600568294525e-02
-4.898203909397125244e-02
4.571847617626190186e-02
-3.600373119115829468e-02
4.191309586167335510e-02
-3.932915255427360535e-02
6.341242045164108276e-02
5.531482771039009094e-02
2.531434781849384308e-02
2.381252683699131012e-02
-5.079523473978042603e-02
-4.530734149739146233e-04
-5.225517600774765015e-02
2.988856285810470581e-02
-5.996616184711456299e-02
-3.498703241348266602e-02
9.420438669621944427e-03
1.473552919924259186e-02
1.338018453679978848e-03
-6.180414929986000061e-02
-1.698863133788108826e-02
1.740294322371482849e-02
-3.038233844563364983e-03
-1.453195326030254364e-02
-2.267155796289443970e-02
6.220926344394683838e-02
3.728260984644293785e-03
7.325762510299682617e-02
6.778550893068313599e-02
2.062647603452205658e-02
8.764922618865966797e-03
-4.310623276978731155e-03
1.551082357764244080e-03
-2.761598909273743629e-03
-3.743970394134521484e-02
-2.079295925796031952e-02
6.632748246192932129e-02
-3.213670849800109863e-02
-4.134519770741462708e-02
5.359729006886482239e-02
2.765714563429355621e-02
1.757845282554626465e-02
-5.158925801515579224e-02
-3.647889196872711182e-02
-3.116446314379572868e-04
1.525658532045781612e-03
4.675842449069023132e-02
8.339049667119979858e-02
4.754687473177909851e-02
4.906327649950981140e-02
-1.909074373543262482e-02
3.255960717797279358e-02
4.193621873855590820e-02
-2.921231091022491455e-02
4.106469452381134033e-02
-2.876496687531471252e-02
5.954870209097862244e-02
1.348655857145786285e-02
-3.982163965702056885e-02
1.201405841857194901e-02
-2.428043819963932037e-02
4.197629634290933609e-03
6.572744250297546387e-02
-5.864759162068367004e-02
3.308625519275665283e-02
-2.690136618912220001e-02
4.983324930071830750e-02
-4.849592223763465881e-02
3.882445394992828369e-02
3.118596412241458893e-02
-5.506829917430877686e-02
-4.189761355519294739e-02
-4.113918403163552284e-04
-1.845118403434753418e-02
5.200907960534095764e-02
-1.511393697001039982e-03
-1.081117242574691772e-01
4.105428233742713928e-02
8.220040798187255859e-02
7.841306924819946289e-02
6.019069626927375793e-02
2.096462249755859375e-02
-3.161361441016197205e-02
-2.849420346319675446e-02
-7.689442485570907593e-02
1.111886557191610336e-02
5.606662482023239136e-02
9.620162844657897949e-02
-3.525086864829063416e-02
-4.831677675247192383e-02
2.518757991492748260e-02
6.248850747942924500e-02
-2.938160905614495277e-03
-1.760175265371799469e-02
4.860764741897583008e-02
-2.223799563944339752e-02
-5.266497284173965454e-02
1.416628435254096985e-02
7.181511074304580688e-02
3.243304789066314697e-02
4.243579506874084473e-02
-2.583805285394191742e-02
-7.191737648099660873e-03
-2.182094007730484009e-02
5.158681422472000122e-02
-7.940536364912986755e-03
7.435152679681777954e-02
4.528684541583061218e-02
-3.914722800254821777e-02
5.551324412226676941e-02
-4.333461448550224304e-02
2.220148220658302307e-02
-1.751305349171161652e-02
-5.490479618310928345e-02
3.630459308624267578e-02
-3.385287895798683167e-02
4.686230421066284180e-02
-3.160621225833892822e-02
5.651380121707916260e-02
-9.120617993175983429e-03
-4.924570210278034210e-03
2.124515734612941742e-02
-5.505320057272911072e-02
3.746362775564193726e-02
7.680532871745526791e-04
-9.750818833708763123e-03
1.864411681890487671e-02
-3.439782559871673584e-02
5.089070275425910950e-02
4.583943635225296021e-02
2.813744358718395233e-02
3.137257322669029236e-02
1.298937597312033176e-03
3.092477470636367798e-02
-1.340329181402921677e-02
-5.732291378080844879e-03
-3.300116956233978271e-02
1.097515691071748734e-02
1.291276607662439346e-02
3.631184995174407959e-02
-7.444915920495986938e-02
-1.929334015585482121e-03
6.650044769048690796e-02
2.530663833022117615e-02
-1.939260587096214294e-02
1.944258622825145721e-02
-1.536120567470788956e-02
2.860961249098181725e-04
-7.255476713180541992e-02
-4.529316723346710205e-02
1.773545891046524048e-02
-9.255138225853443146e-03
5.419760569930076599e-02
2.879158407449722290e-02
-1.253131125122308731e-02
-2.107517793774604797e-02
-3.048102371394634247e-03
5.945117771625518799e-02
5.081620067358016968e-02
-4.689364880323410034e-02
1.874734461307525635e-02
3.652537241578102112e-02
2.838862128555774689e-02
2.786356583237648010e-02
-1.193816540762782097e-03
4.780967161059379578e-02
2.120216563344001770e-02
-6.894352287054061890e-02
-1.051472034305334091e-02
6.381378322839736938e-02
-5.066765472292900085e-02
-5.340548977255821228e-02
2.284656837582588196e-02
2.661380916833877563e-02
2.022273838520050049e-02
-1.437675580382347107e-02
3.829197958111763000e-02
-1.549896132200956345e-02
3.721079230308532715e-02
5.575483292341232300e-02
4.747798666357994080e-02
-1.116544008255004883e-02
-2.638330310583114624e-02
-4.272799566388130188e-02
-4.254129901528358459e-02
4.738975316286087036e-02
6.737086921930313110e-02
-4.558754712343215942e-02
-3.220070898532867432e-02
-3.999359440058469772e-03
8.077386021614074707e-02
5.015055183321237564e-03
-3.956602141261100769e-02
-9.470154531300067902e-03
1.110616978257894516e-02
4.970348253846168518e-02
4.464914673008024693e-04
5.022400617599487305e-02
3.432008996605873108e-02
-2.881043031811714172e-02
3.341057896614074707e-02
1.796351559460163116e-02
9.838717430830001831e-02
6.857252679765224457e-03
-1.812749914824962616e-02
-1.321403868496417999e-02
7.616212964057922363e-02
-3.101629391312599182e-02
3.212529048323631287e-02
-6.191412732005119324e-02
-1.342330500483512878e-02
9.792906232178211212e-03
-3.909651190042495728e-03
-2.736510708928108215e-02
4.456038400530815125e-02
-4.861934483051300049e-02
-3.351671248674392700e-02
1.664051041007041931e-02
-4.259229078888893127e-02
2.952394634485244751e-02
5.602444335818290710e-02
2.090171538293361664e-02
-1.163293607532978058e-02
5.650415644049644470e-02
1.090440060943365097e-02
2.704083546996116638e-02
1.419328339397907257e-02
-2.636635862290859222e-02
-1.607709750533103943e-02
-2.942021703347563744e-03
3.162366896867752075e-02
5.592657998204231262e-02
-3.490307927131652832e-02
1.035452634096145630e-02
-3.786261752247810364e-02
1.119550690054893494e-02
-2.820860780775547028e-02
-3.548422455787658691e-02
4.816799983382225037e-02
-5.016667023301124573e-02
7.376841455698013306e-02
2.368169091641902924e-02
2.418991178274154663e-02
1.218941528350114822e-02
-4.338986426591873169e-02
1.826784573495388031e-02
-9.058174677193164825e-03
4.661362618207931519e-02
-1.384047605097293854e-02
2.641895599663257599e-02
-3.097362257540225983e-02
6.378543097525835037e-03
-6.929598748683929443e-02
1.609761267900466919e-02
1.203800737857818604e-02
6.008447613567113876e-03
1.305029843933880329e-03
5.538813024759292603e-02
-2.364363893866539001e-02
-5.072240903973579407e-02
6.329751573503017426e-03
2.340475283563137054e-02
-2.297108806669712067e-02
7.306403480470180511e-03
-4.325129836797714233e-02
-4.568211361765861511e-02
-5.186376348137855530e-02
4.474877566099166870e-02
1.898518647067248821e-03
-1.566899940371513367e-02
-4.853670299053192139e-02
4.079319536685943604e-02
-4.741951823234558105e-03
1.919628120958805084e-02
-3.532057628035545349e-02
7.148711592890322208e-04
-2.577619627118110657e-03
3.225406259298324585e-02
6.502261757850646973e-02
8.599036931991577148e-02
3.732433542609214783e-02
-2.040813909843564034e-03
3.222105558961629868e-03
2.969859354197978973e-02
-4.331976920366287231e-02
3.553664684295654297e-02
2.675758674740791321e-02
3.278459236025810242e-02
-3.071754612028598785e-02
-2.786761894822120667e-02
-1.107289083302021027e-02
5.272355675697326660e-02
-5.126390606164932251e-02
1.094008702784776688e-02
-5.719380080699920654e-02
3.814526600763201714e-03
-6.002380326390266418e-02
8.052541315555572510e-02
-1.751070655882358551e-02
-5.293867364525794983e-02
-5.904229357838630676e-02
3.179663792252540588e-02
-5.163291841745376587e-02
-2.804731205105781555e-02
-4.469949635677039623e-04
7.136799860745668411e-03
-4.881001636385917664e-02
-2.407337538897991180e-02
-4.361360147595405579e-02
2.628440968692302704e-02
2.054713107645511627e-02
-4.489153996109962463e-02
-1.778776384890079498e-02
1.798976957798004150e-02
-6.382739637047052383e-03
5.113989114761352539e-02
1.173041481524705887e-02
-7.315568625926971436e-02
-1.920334994792938232e-02
-3.479471430182456970e-02
-4.408411681652069092e-02
2.223559282720088959e-02
-4.832546040415763855e-02
1.376364473253488541e-02
7.803960703313350677e-03
-5.880070850253105164e-02
-4.440406803041696548e-03
-7.913676090538501740e-03
-7.274365052580833435e-03
5.626826360821723938e-02
3.273607417941093445e-02
-5.792388765257783234e-05
-7.620839867740869522e-03
-2.279214002192020416e-02
-7.210239302366971970e-03
-1.051583290100097656e-01
-5.401428043842315674e-02
-3.604590892791748047e-02
2.851763367652893066e-02
-3.915037214756011963e-02
-5.651379376649856567e-02
3.374757245182991028e-02
4.120030254125595093e-02
2.771921083331108093e-02
5.167172476649284363e-02
-6.782471388578414917e-02
5.094060674309730530e-02
-7.189235091209411621e-02
1.518789026886224747e-02
1.371496636420488358e-02
2.786984853446483612e-02
-1.685465313494205475e-02
-3.150327503681182861e-02
-5.837809294462203979e-02
-6.566452980041503906e-02
8.936954662203788757e-03
-1.762805506587028503e-02
1.264771446585655212e-02
3.191333264112472534e-02
1.497109141200780869e-02
-2.107313647866249084e-02
-1.796350255608558655e-02
-6.659937649965286255e-02
-4.399563651531934738e-03
-3.087373450398445129e-02
-8.879262953996658325e-02
5.168903991580009460e-02
-6.164763122797012329e-02
2.622265368700027466e-02
3.033890575170516968e-02
-6.111065670847892761e-02
-4.603444412350654602e-02
-5.210230126976966858e-02
1.146288122981786728e-02
-2.502357773482799530e-02
3.825898980721831322e-03
3.755909204483032227e-02
-3.603126481175422668e-02
2.761107869446277618e-02
-4.351726546883583069e-02
1.303468830883502960e-02
1.883355528116226196e-02
-2.860271930694580078e-02
1.273859106004238129e-02
-2.039289847016334534e-02
2.045546285808086395e-02
5.668462067842483521e-02
-2.023001573979854584e-02
-3.341227397322654724e-02
-4.493247717618942261e-03
2.198109216988086700e-02
-2.286567352712154388e-02
1.374851446598768234e-02
3.457618178799748421e-03
2.700743637979030609e-02
2.494054660201072693e-02
5.138533934950828552e-02
1.664263755083084106e-02
4.838889930397272110e-03
2.629097364842891693e-02
3.092458471655845642e-02
-6.834133714437484741e-02
4.426399618387222290e-02
8.649983443319797516e-03
-1.611381769180297852e-02
1.968557201325893402e-02
5.732604116201400757e-02
9.864391759037971497e-03
-3.048387542366981506e-02
-6.492662709206342697e-03
-5.520780757069587708e-02
-1.661209017038345337e-02
2.006896585226058960e-02
-1.799591816961765289e-02
2.233672700822353363e-02
-1.114770397543907166e-02
-1.798150315880775452e-02
-7.224237080663442612e-03
-2.475253492593765259e-02
-7.562225218862295151e-03
5.145635083317756653e-02
-6.190312653779983521e-02
-4.990130290389060974e-02
-5.602179840207099915e-02
1.601951755583286285e-02
-1.314333756454288960e-03
-4.280539974570274353e-02
1.533827837556600571e-02
-2.049818448722362518e-02
-5.866658687591552734e-02
-2.711306884884834290e-02
3.949380666017532349e-02
-3.736919909715652466e-02
-2.951709367334842682e-02
5.121849104762077332e-02
4.460828751325607300e-02
5.940976087003946304e-03
1.435090554878115654e-03
-1.130172610282897949e-02
2.239023521542549133e-02
6.593263242393732071e-03
-7.402633875608444214e-02
-3.257004544138908386e-02
-1.396244112402200699e-02
1.343040820211172104e-02
1.607900299131870270e-02
-4.132292699068784714e-03
-8.710198104381561279e-02
-8.001892268657684326e-02
3.168414533138275146e-02
-5.821516271680593491e-03
-1.757165975868701935e-02
7.601822260767221451e-03
2.661729045212268829e-02
2.985475026071071625e-02
-1.830049417912960052e-02
-6.236065924167633057e-02
2.399650402367115021e-02
-1.487475703470408916e-03
2.471374906599521637e-02
6.682430952787399292e-02
-1.741806231439113617e-02
9.791193297132849693e-04
4.166925325989723206e-02
-2.965242834761738777e-03
3.496127203106880188e-02
-1.551976893097162247e-02
4.201245494186878204e-03
-1.938368380069732666e-02
1.601392030715942383e-02
3.601275011897087097e-02
1.256476249545812607e-02
-3.420062735676765442e-02
-1.088885664939880371e-01
3.001472353935241699e-02
-3.373216092586517334e-02
2.695104666054248810e-02
2.558865398168563843e-02
2.118253335356712341e-02
-6.848321855068206787e-02
-3.797940537333488464e-02
5.036234855651855469e-02
-4.635046422481536865e-02
4.020687937736511230e-02
2.577525749802589417e-02
2.908842638134956360e-03
6.309882155619561672e-04
1.875450089573860168e-02
-3.462245687842369080e-02
-4.164202883839607239e-02
6.187435984611511230e-02
-1.641544513404369354e-02
5.019553378224372864e-02
4.769786261022090912e-03
4.673345386981964111e-02
5.119734629988670349e-02
-7.581782341003417969e-02
-3.216058388352394104e-02
3.128949180245399475e-02
-2.376076579093933105e-02
5.023993179202079773e-02
-2.768629603087902069e-02
-3.619338199496269226e-02
3.085030801594257355e-02
-4.849058762192726135e-02
7.233055680990219116e-02
-5.951094254851341248e-02
-6.309361755847930908e-02
-5.427615344524383545e-02
-4.988542944192886353e-02
-7.178742438554763794e-02
-4.346352070569992065e-02
-3.388505056500434875e-02
4.856949299573898315e-02
1.842493191361427307e-02
-3.638644516468048096e-02
6.226912513375282288e-02
4.309016279876232147e-03
-7.518586236983537674e-03
-2.792686969041824341e-02
4.141035676002502441e-02
4.544696211814880371e-02
5.795942153781652451e-03
3.653971478343009949e-02
-6.530717015266418457e-02
5.970934405922889709e-02
-1.971493661403656006e-02
-1.199504127725958824e-03
5.246332660317420959e-02
2.857100591063499451e-02
2.210447937250137329e-02
-1.752343960106372833e-02
4.599418491125106812e-03
-3.848090069368481636e-03
-9.313177317380905151e-03
3.839953616261482239e-02
-5.746514722704887390e-02
2.717191353440284729e-02
-1.146877463907003403e-02
3.387851268053054810e-02
3.642497584223747253e-03
-4.577322676777839661e-02
3.486366197466850281e-02
3.425230458378791809e-02
3.544205054640769958e-02
-4.309830069541931152e-02
-7.654575258493423462e-02
4.691358283162117004e-02
-3.287727758288383484e-02
-2.325941994786262512e-02
1.294593513011932373e-02
-1.350401248782873154e-02
-8.878248743712902069e-03
-7.015393674373626709e-02
5.953473225235939026e-02
6.084747612476348877e-02
5.166194587945938110e-02
2.502692118287086487e-02
5.876133590936660767e-02
-5.259725451469421387e-02
-2.795233204960823059e-02
5.886318534612655640e-02
6.224426254630088806e-02
-2.563641406595706940e-02
-3.158730641007423401e-02
1.693622791208326817e-03
3.566620871424674988e-02
-3.407313488423824310e-04
-5.584110692143440247e-02
5.322210863232612610e-02
4.742436483502388000e-02
-6.952501088380813599e-02
-2.263634651899337769e-02
4.234306141734123230e-02
3.640646487474441528e-02
5.434608459472656250e-02
-9.658059477806091309e-02
-4.886814393103122711e-03
2.773481979966163635e-02
-4.068365320563316345e-02
2.809757180511951447e-02
5.858999118208885193e-02
-7.049529254436492920e-02
2.671806886792182922e-02
1.178522501140832901e-02
1.223268546164035797e-02
5.205339193344116211e-02
-5.957718007266521454e-03
-3.173751384019851685e-02
5.714458972215652466e-02
4.057049006223678589e-02
-1.741089671850204468e-02
3.468864597380161285e-03
-3.031948208808898926e-02
-4.653215780854225159e-02
-2.883982844650745392e-03
-3.384534269571304321e-02
3.487664461135864258e-02
-4.342565716797253117e-06
-3.578042984008789062e-02
-4.162615537643432617e-02
-4.513074085116386414e-02
-3.032436780631542206e-02
-8.779790252447128296e-02
5.279114097356796265e-02
-2.577023394405841827e-02
-5.897021293640136719e-02
3.330997750163078308e-02
-3.679381683468818665e-02
3.611186891794204712e-02
-1.063787490129470825e-01
3.986695408821105957e-02
-1.172141544520854950e-02
1.295218057930469513e-02
7.094792090356349945e-03
-3.858588263392448425e-02
1.933695189654827118e-02
-2.193521242588758469e-03
4.116262868046760559e-02
3.954060375690460205e-02
5.769584700465202332e-02
1.071210135705769062e-04
-3.430797904729843140e-02
-4.822995141148567200e-02
-9.082540054805576801e-04
2.064295578747987747e-03
2.004363946616649628e-02
-6.358458194881677628e-03
6.809529662132263184e-02
-4.302359372377395630e-02
-3.875706717371940613e-02
6.235921382904052734e-02
5.421421676874160767e-02
5.904214456677436829e-02
-2.595974504947662354e-02
-2.295688167214393616e-02
4.854043573141098022e-02
2.440125495195388794e-02
3.925442323088645935e-02
-1.901674829423427582e-02
9.563629515469074249e-03
2.358909510076045990e-02
3.905597701668739319e-02
1.049453392624855042e-02
-7.098572701215744019e-02
3.666886687278747559e-02
-4.725887253880500793e-02
-1.655680686235427856e-02
6.249812897294759750e-03
2.502634562551975250e-02
4.032708238810300827e-03
2.413842361420392990e-03
4.725988581776618958e-02
4.094529524445533752e-02
6.345716118812561035e-02
4.076495394110679626e-02
1.402835827320814133e-02
-4.723072052001953125e-03
-7.529402524232864380e-02
1.367617119103670120e-02
-3.582289069890975952e-02
-5.433226376771926880e-02
1.876149512827396393e-02
-4.625378176569938660e-02
-8.607520908117294312e-02
3.305910620838403702e-03
5.084014683961868286e-02
4.401905171107500792e-04
-5.262437835335731506e-02
4.643281921744346619e-02
3.882246837019920349e-02
-4.848628118634223938e-02
2.242278866469860077e-02
3.383816406130790710e-02
1.263735536485910416e-02
6.326286494731903076e-02
4.402361437678337097e-02
-3.258210420608520508e-02
-2.750510163605213165e-02
1.897615194320678711e-02
2.477955818176269531e-02
4.727610945701599121e-02
-4.085475206375122070e-02
-5.785306543111801147e-02
-4.870159551501274109e-02
-3.834288567304611206e-02
2.240315638482570648e-02
-5.206401646137237549e-02
-4.022842273116111755e-02
-9.807800874114036560e-03
5.044302716851234436e-02
4.697351902723312378e-02
1.466987933963537216e-02
-1.288608461618423462e-02
4.488878417760133743e-03
-4.795172065496444702e-02
-1.345372572541236877e-02
-6.257844716310501099e-02
-1.225419621914625168e-02
-1.523299980908632278e-02
-5.503043904900550842e-02
-3.968284651637077332e-02
1.027416344732046127e-02
1.035232748836278915e-02
-8.103408850729465485e-03
1.614663936197757721e-02
-8.710079640150070190e-02
6.605218350887298584e-02
4.357675090432167053e-02
-3.922691941261291504e-02
-5.005009099841117859e-02
-3.898756578564643860e-02
-4.680233076214790344e-02
-1.948599703609943390e-02
-1.309407502412796021e-01
2.757338993251323700e-02
2.568358741700649261e-02
-2.069629170000553131e-02
3.598160808905959129e-03
3.474160283803939819e-02
1.949286833405494690e-02
-4.745283350348472595e-02
-2.708339132368564606e-02
-8.303810842335224152e-03
-1.889684982597827911e-02
5.870112404227256775e-02
-3.526317700743675232e-02
2.607399038970470428e-02
1.622637361288070679e-02
-1.436346583068370819e-02
1.566519588232040405e-02
4.098903387784957886e-02
-5.768385902047157288e-02
-3.544827178120613098e-02
4.374873265624046326e-02
2.205159328877925873e-02
4.621408879756927490e-02
6.636244803667068481e-02
5.561278760433197021e-02
-5.877339839935302734e-02
-2.987118251621723175e-02
1.104605197906494141e-02
1.691909693181514740e-02
1.775558292865753174e-02
-1.359720434993505478e-02
-5.799651518464088440e-02
3.458775579929351807e-02
5.074017867445945740e-02
2.365548722445964813e-02
4.654577374458312988e-02
5.836357176303863525e-02
4.317737743258476257e-02
-5.790322087705135345e-03
9.382685646414756775e-03
-6.936277449131011963e-02
-2.735424414277076721e-02
1.099474821239709854e-02
4.088027775287628174e-02
3.365129232406616211e-02
